digraph Tree {
node [shape=box] ;
0 [label="X[38] <= 19444231.0\ngini = 0.414\nsamples = 638\nvalue = [187, 451]"] ;
1 [label="X[67] <= -2.929\ngini = 0.498\nsamples = 185\nvalue = [99, 86]"] ;
0 -> 1 [labeldistance=2.5, labelangle=45, headlabel="True"] ;
2 [label="gini = 0.0\nsamples = 16\nvalue = [16, 0]"] ;
1 -> 2 ;
3 [label="X[14] <= 0.395\ngini = 0.5\nsamples = 169\nvalue = [83, 86]"] ;
1 -> 3 ;
4 [label="X[69] <= 0.159\ngini = 0.469\nsamples = 85\nvalue = [53, 32]"] ;
3 -> 4 ;
5 [label="gini = 0.406\nsamples = 60\nvalue = [43, 17]"] ;
4 -> 5 ;
6 [label="gini = 0.48\nsamples = 25\nvalue = [10, 15]"] ;
4 -> 6 ;
7 [label="X[96] <= 0.262\ngini = 0.459\nsamples = 84\nvalue = [30, 54]"] ;
3 -> 7 ;
8 [label="gini = 0.5\nsamples = 47\nvalue = [23, 24]"] ;
7 -> 8 ;
9 [label="gini = 0.307\nsamples = 37\nvalue = [7, 30]"] ;
7 -> 9 ;
10 [label="X[11] <= 0.34\ngini = 0.313\nsamples = 453\nvalue = [88, 365]"] ;
0 -> 10 [labeldistance=2.5, labelangle=-45, headlabel="False"] ;
11 [label="X[98] <= 0.218\ngini = 0.428\nsamples = 197\nvalue = [61, 136]"] ;
10 -> 11 ;
12 [label="X[13] <= 21383000.0\ngini = 0.324\nsamples = 108\nvalue = [22, 86]"] ;
11 -> 12 ;
13 [label="gini = 0.486\nsamples = 12\nvalue = [7, 5]"] ;
12 -> 13 ;
14 [label="gini = 0.264\nsamples = 96\nvalue = [15, 81]"] ;
12 -> 14 ;
15 [label="X[101] <= -0.116\ngini = 0.492\nsamples = 89\nvalue = [39, 50]"] ;
11 -> 15 ;
16 [label="gini = 0.332\nsamples = 19\nvalue = [15, 4]"] ;
15 -> 16 ;
17 [label="gini = 0.451\nsamples = 70\nvalue = [24, 46]"] ;
15 -> 17 ;
18 [label="X[106] <= 0.381\ngini = 0.189\nsamples = 256\nvalue = [27, 229]"] ;
10 -> 18 ;
19 [label="X[93] <= 0.096\ngini = 0.155\nsamples = 236\nvalue = [20, 216]"] ;
18 -> 19 ;
20 [label="gini = 0.265\nsamples = 102\nvalue = [16, 86]"] ;
19 -> 20 ;
21 [label="gini = 0.058\nsamples = 134\nvalue = [4, 130]"] ;
19 -> 21 ;
22 [label="X[99] <= 0.045\ngini = 0.455\nsamples = 20\nvalue = [7, 13]"] ;
18 -> 22 ;
23 [label="gini = 0.346\nsamples = 9\nvalue = [7, 2]"] ;
22 -> 23 ;
24 [label="gini = 0.0\nsamples = 11\nvalue = [0, 11]"] ;
22 -> 24 ;
}