digraph Tree {
node [shape=box] ;
0 [label="X[14] <= -0.208\nentropy = 0.876\nsamples = 510\nvalue = [151, 359]"] ;
1 [label="X[25] <= -0.089\nentropy = 1.0\nsamples = 164\nvalue = [83, 81]"] ;
0 -> 1 [labeldistance=2.5, labelangle=45, headlabel="True"] ;
2 [label="entropy = 0.913\nsamples = 64\nvalue = [43, 21]"] ;
1 -> 2 ;
3 [label="entropy = 0.971\nsamples = 100\nvalue = [40, 60]"] ;
1 -> 3 ;
4 [label="X[38] <= -0.235\nentropy = 0.715\nsamples = 346\nvalue = [68, 278]"] ;
0 -> 4 [labeldistance=2.5, labelangle=-45, headlabel="False"] ;
5 [label="entropy = 0.888\nsamples = 108\nvalue = [33, 75]"] ;
4 -> 5 ;
6 [label="entropy = 0.602\nsamples = 238\nvalue = [35, 203]"] ;
4 -> 6 ;
}